svm_type c_svc
kernel_type rbf
gamma 0.3
nr_class 2
total_sv 62
rho 0.154941
label 1 2
probA -4.16213
probB -0.221053
nr_sv 30 32
SV
0.8682451596983723 0:7.4633594 1:1.7897775 2:-9.3514204 3:-5.9593544 4:5.8077407 5:4.7085967 6:-4.3877764 7:-2.9144754 8:3.3959064 9:1.4636828 10:-1.8031595 11:0.7656275 12:1.5853468 13:-1.9922901 14:-1.6159213 15:1.6299832 16:1.1172583 17:-1.311344 
1 0:0.64170754 1:0.29467708 2:-0.8297016 3:0.53678817 4:-0.082093045 5:0.016427884 6:-0.0048644119 7:0.19156684 8:0.15180551 9:-1.0131282 10:0.39982587 11:0.20968544 12:0.62995011 13:-0.94398171 14:0.99526238 15:-1.5959239 16:1.2010915 17:-0.078347802 
1 0:0.67871797 1:0.051819678 2:-0.23017393 3:-0.098518491 4:0.080216788 5:0.063419014 6:0.04971486 7:-0.25646469 8:0.21750605 9:-0.063829094 10:-0.1193694 11:-0.22827883 12:1.294119 13:-1.3203123 14:-0.40087959 15:1.7213448 16:-1.0395474 17:0.012780971 
1 0:10.981388 1:24.64571 2:-41.02544 3:15.72367 4:-7.2207909 5:6.7478862 6:-4.6404462 7:10.157883 8:-7.7640505 9:-2.0103514 10:5.0356116 11:4.2228546 12:-5.7777686 13:1.0811723 14:-1.9584907 15:-2.3832586 16:5.2208123 17:0.76568735 
0.6783692414533814 0:-0.13309205 1:0.12711883 2:-0.085457735 3:0.047974061 4:-0.011413374 5:-0.018494932 6:0.049865685 7:0.010372711 8:-0.37372544 9:0.77300107 10:-0.69199681 11:0.45587489 12:-0.30217227 13:-0.11142354 14:0.32806343 15:0.0029969234 16:-0.21506363 17:0.049287368 
0.5676838969032533 0:-0.16957523 1:0.050314914 2:0.12732673 3:0.092773281 4:0.023905717 5:0.0073555741 6:-0.053395942 7:-0.10901426 8:-0.52246934 9:0.17293741 10:0.96986985 11:-0.57042092 12:0.50983918 13:-0.13533862 14:-0.80290323 15:-0.085666008 16:0.43712544 17:-0.028193928 
1 0:-1.9043107 1:3.7743866 2:-2.1240649 3:-6.5537615 4:16.818905 5:-14.974656 6:7.62043 7:-7.5079451 8:9.2820654 9:-4.5845199 10:0.59173971 11:-0.55797547 12:0.26725641 13:-2.0713305 14:3.4403052 15:-1.03083 16:-0.33616474 17:0.10878146 
1 0:-3.4716043 1:-18.397184 2:5.6819577 3:16.070005 4:-7.9876938 5:-2.6236088 6:7.1923399 7:-6.7099066 8:-2.6952701 9:5.9129333 10:0.51589376 11:0.8961072 12:-1.4164964 13:-3.1249752 14:2.2993708 15:0.62991589 16:-0.35632518 17:2.0808849 
1 0:32.236454 1:-19.903202 2:-19.441364 3:18.745512 4:0.72538549 5:0.8322286 6:3.2598345 7:-6.7795134 8:3.3731971 9:2.3921466 10:-3.5911181 11:-6.8441153 12:9.7007513 13:-3.9190736 14:4.8466783 15:-7.061101 16:-0.15571186 17:3.0268981 
0.8687758355816531 0:7.4223151 1:2.5243516 2:-8.6493216 3:-5.7772241 4:5.0798998 5:4.6823721 6:-3.9993119 7:-3.3720176 8:2.674546 9:1.4324696 10:-1.9532957 11:0.7961452 12:2.2759197 13:-1.3556926 14:-1.9537164 15:1.4101455 16:1.1285886 17:-0.92050833 
1 0:-34.587322 1:56.574326 2:-56.924866 3:34.443233 4:-11.594397 5:-15.47825 6:14.372512 7:13.111645 8:-2.2048423 9:-18.515337 10:12.93786 11:-6.4523988 12:8.5534182 13:-5.0721865 14:-6.3992572 15:9.6747265 16:-0.97154421 17:-10.292243 
1 0:-13.95211 1:44.819901 2:-42.986675 3:16.454077 4:-12.039747 5:39.789085 6:-45.811661 7:12.28257 8:6.449841 9:3.4371207 10:-9.0051746 11:2.4338448 12:1.6403526 13:-2.5995607 14:6.8054857 15:-8.9745646 16:5.8174329 17:-1.7522295 
1 0:5.9514604 1:-4.1385536 2:-8.6373224 3:2.3819275 4:4.9498649 5:-4.0866675 6:-1.3848598 7:5.5860658 8:-0.78404409 9:-5.1842017 10:2.3391128 11:3.242872 12:-2.8467846 13:-1.2713767 14:2.6475947 15:0.11674652 16:-0.96053624 17:0.89620906 
1 0:-14.05304 1:-1.9383174 2:18.163372 3:-5.3280964 4:-2.9626288 5:2.7869432 6:-1.8301721 7:4.8529749 8:-7.0110078 9:1.0062698 10:3.5118523 11:-6.2179179 12:5.2171016 13:-1.0134014 14:-1.9862021 15:4.1594696 16:-2.203155 17:0.032574505 
0.7778589454685279 0:0.035846557 1:-0.19215336 2:0.10478397 3:0.050014969 4:-0.049605384 5:0.029751696 6:-0.0020765029 7:0.0041714818 8:-0.59576905 9:1.1679628 10:-0.20213965 11:-1.499449 12:1.1825358 13:0.22945425 14:-0.015103702 15:0.030209618 16:-0.31907615 17:-0.18418711 
1 0:-23.110731 1:29.605623 2:-7.8390179 3:-2.9199281 4:-1.1454624 5:6.8849416 6:-17.617558 7:17.81002 8:-6.3960958 9:5.1354556 10:-9.5877228 11:7.2161713 12:1.7797134 13:-9.4261208 14:11.702766 15:-9.3921032 16:3.2838979 17:0.93394011 
0.2192673964462729 0:0.045492094 1:-0.5661124 2:0.38901138 3:0.10591381 4:-0.14520524 5:0.011345202 6:0.12820897 7:-0.094620392 8:-0.052015468 9:0.073301397 10:0.03947467 11:-0.25694996 12:0.047582008 13:0.14428259 14:0.37963167 15:0.10535628 16:-0.73136997 17:-0.011031397 
1 0:4.9721413 1:5.7288475 2:-2.413537 3:-8.2018757 4:-2.5432391 5:5.0425906 6:2.9272742 7:-2.9127719 8:-2.8815529 9:1.6033367 10:1.4663672 11:-0.78117549 12:-0.27936178 13:1.8673723 14:0.70092356 15:-1.5147837 16:-0.67299825 17:1.2431751 
1 0:25.043299 1:-5.0538273 2:-32.855827 3:26.64179 4:-12.343436 5:11.865525 6:-2.3721523 7:0.98416883 8:-8.2148342 9:13.547584 10:-5.7687287 11:-5.6429944 12:3.9629242 13:-1.795624 14:3.1831486 15:2.7180438 16:-6.5609355 17:0.45165884 
1 0:-3.0631499 1:-15.603181 2:4.8189521 3:11.279333 4:-5.9242539 5:1.0245979 6:2.7749472 7:-6.9117126 8:4.1156039 9:2.7889669 10:-5.9602017 11:4.3556118 12:2.2260354 13:-6.3625326 14:3.1503863 15:3.1003041 16:-3.2315714 17:-0.15985703 
1 0:-2.9975722 1:-15.337387 2:4.0085568 3:13.397087 4:-4.683578 5:-2.3961678 6:3.8051076 7:-5.8700638 8:0.69967228 9:5.5046191 10:-3.2218318 11:0.80471468 12:2.9417386 13:-5.2925239 14:0.40571609 15:4.619556 16:-2.0398228 17:-1.0950737 
0.5754635038401346 0:-0.010071013 1:0.1838752 2:-0.10637684 3:-0.034054108 4:0.024159519 5:0.042905942 6:-0.1368205 7:0.21368638 8:0.024046684 9:-0.34499377 10:0.37811595 11:-0.069119297 12:-0.24868087 13:0.11798777 14:0.16561641 15:-0.16114874 16:-0.093024798 17:0.21713512 
1 0:4.4987516 1:30.44849 2:-35.692276 3:7.469202 4:-0.42987275 5:-0.81528366 6:-0.36000913 7:5.2489243 8:1.505788 9:-9.9655371 10:5.44064 11:2.1134315 12:1.5185969 13:-4.5691137 14:5.6197548 15:-8.0098324 16:2.6644151 17:2.3940191 
0.9850176465469809 0:-0.36722079 1:0.049526926 2:0.18377884 3:-0.013799322 4:-0.088935241 5:-0.018741934 6:0.12184844 7:-0.22173853 8:0.2919302 9:0.014411539 10:-0.46107799 11:-0.22352299 12:1.8834844 13:-2.4204032 14:2.4056563 15:-2.7629905 16:1.8348923 17:-0.5085426 
1 0:-9.6680822 1:13.06268 2:-4.9650488 3:-1.9747916 4:-7.482347 5:17.060377 6:-18.165211 7:14.132797 8:-10.830354 9:10.765274 10:-5.8211627 11:1.3804255 12:-3.1894076 13:0.039332483 14:7.0718536 15:-3.5868239 16:-3.3824017 17:1.0948591 
0.9828070406169305 0:0.31642929 1:-1.0786403 2:0.96636772 3:-0.23424385 4:0.039973941 5:-0.14100479 6:0.1522857 7:-0.48795748 8:1.3025738 9:-1.2575562 10:-0.13681787 11:0.36849293 12:1.3585622 13:-2.1103189 14:2.1099496 15:-2.4657381 16:1.5007102 17:-0.14846084 
1 0:-3.0232279 1:-9.996788 2:3.7118716 3:7.4655595 4:-3.3628888 5:-0.70649409 6:-0.9444111 7:-2.0058062 8:5.8550134 9:0.040858246 10:-4.5184155 11:2.9138196 12:0.43603602 13:-1.4642609 14:1.9971411 15:-1.9710031 16:-0.7299149 17:2.8353055 
1 0:-31.291695 1:31.347498 2:10.414243 3:-22.026775 4:4.6995401 5:-25.951378 6:50.52758 7:-34.369202 8:14.442493 9:-5.8992043 10:-1.6464171 11:3.2276454 12:0.00092014327 13:3.1640561 14:-3.1895969 15:-5.6220169 16:4.8945961 17:-4.2080598 
1 0:31.183037 1:-27.263857 2:-11.843262 3:19.621109 4:-4.660985 5:5.5749426 6:1.2455348 7:-10.769475 8:12.556533 9:-4.477273 10:-4.3694949 11:-2.5850062 12:8.245183 13:-5.7665262 14:6.8340111 15:-10.638672 16:6.2575331 17:1.5318261 
0.6030910531787356 0:0.019416146 1:0.19379157 2:-0.17259824 3:-0.057544094 4:0.097558193 5:-0.015036796 6:0.046433665 7:-0.17520821 8:-0.071799025 9:0.6737048 10:-0.63787001 11:-0.15088855 12:0.35757574 13:0.42722908 14:-0.80787319 15:0.35846272 16:0.043754168 17:-0.1045878 
-0.7455494312429047 0:1.0115113 1:0.74062878 2:-1.4966573 3:-1.6582351 4:0.42171744 5:2.259903 6:0.17688729 7:-0.83045292 8:-0.78917527 9:0.51967853 10:0.31378725 11:-0.65170795 12:0.041265227 13:0.57730496 14:-0.12854478 15:-0.74838972 16:0.15689953 17:0.90814704 
-0.8450213967256659 0:-0.02781296 1:3.107631 2:-5.5042405 3:9.5380096 4:-18.030561 5:31.317646 6:-22.36482 7:4.9160028 8:5.8453121 9:-16.383728 10:14.247427 11:-0.5053938 12:-6.9159575 13:4.2942014 14:2.5691097 15:-11.645519 16:17.107098 17:-15.084948 
-0.8447588681285162 0:9.5346193 1:-5.1684184 2:-4.4340186 3:7.0732007 4:-7.581461 5:-2.3293312 6:8.1018028 7:3.0594702 8:-9.4238434 9:-0.65047044 10:9.0745707 11:-2.3365271 12:-5.011373 13:0.96534902 14:3.3895655 15:2.0354567 16:-3.0048738 17:-4.7069988 
-0.8447155842553762 0:-8.6092453 1:19.157049 2:-9.5320358 3:-13.375762 4:36.230507 5:-39.606625 6:6.0750661 7:15.874625 8:-3.3192949 9:-12.440991 10:13.255073 11:-7.6151533 12:10.570204 13:-18.37887 14:22.979143 15:-25.620533 16:24.234533 17:-15.887382 
-0.8454236818361714 0:-5.0536981 1:17.809113 2:-14.746006 3:-3.0710306 4:13.872471 5:-5.6657324 6:-14.227397 7:18.947256 8:-7.2879033 9:-5.4199553 10:8.840229 11:-3.9450712 12:-0.835509 13:3.6688659 14:-4.5622072 15:9.00807 16:-16.599108 17:13.73187 
-0.8455615159658714 0:-2.8401923 1:-14.189441 2:18.932928 3:-10.994265 4:-1.1932838 5:4.5228314 6:0.93125671 7:0.11116543 8:-5.3381381 9:0.33469218 10:9.345849 11:-8.5130434 12:1.8634003 13:-1.9716148 14:-0.72072607 15:9.0837803 16:-5.0477958 17:-4.4981503 
-0.8435807285313658 0:-1.2896905 1:-0.022374986 2:2.7645235 3:-1.0911002 4:-1.2786998 5:0.36595187 6:-0.23001702 7:0.57018262 8:-0.35969895 9:-0.20961016 10:1.1843579 11:-0.98276198 12:-0.47148865 13:1.4720136 14:-1.8834875 15:1.0717993 16:0.94305998 17:-2.6529839 
-0.8450213967256659 0:11.696229 1:-18.31386 2:-4.6031227 3:12.747901 4:2.5320237 5:-2.0814965 6:-6.9537401 7:0.205146 8:2.6863146 9:1.8868748 10:-1.8335701 11:-1.5182343 12:6.1050487 13:-4.1871901 14:-1.8528736 15:-0.47359726 16:2.3559577 17:1.1080133 
-0.844926739252494 0:1.0424103 1:3.992115 2:7.6792722 3:-6.3220515 4:-4.5253949 5:-0.13245976 6:-0.93410265 7:4.9082103 8:0.51602936 9:-2.9818087 10:0.93961734 11:-2.1507525 12:2.7271132 13:-3.2367105 14:1.9498034 15:2.741766 16:-1.5648983 17:-0.14844218 
-0.8449037924592372 0:7.1053696 1:-6.2468405 2:12.42271 3:-8.6911793 4:14.875413 5:-14.894332 6:5.9150414 7:-3.4866974 8:1.3340465 9:0.94792402 10:-1.6172141 11:3.45698 12:-7.9639478 13:8.8414822 14:-8.1891413 15:12.443925 16:-11.525826 17:5.4524722 
-0.8454236818361714 0:0.16625629 1:13.72554 2:5.728303 3:-32.097298 4:32.783501 5:-19.766748 6:5.0236607 7:6.0655546 8:-7.1911097 9:4.4514794 10:-3.6541688 11:5.886198 12:-8.6323586 13:5.6845675 14:-0.5402773 15:-2.1912887 16:2.2024524 17:-0.12270763 
-0.8447155842553762 0:-7.8443007 1:17.928511 2:-13.674273 3:-10.025411 4:30.716892 5:-40.061314 6:24.577545 7:2.5931175 8:-5.6677251 9:-3.0372174 10:0.46624377 11:3.0523694 12:-2.7940633 13:-0.24743943 14:-1.7173262 15:11.880499 16:-15.83118 17:14.785589 
-0.844926739252494 0:8.9918451 1:8.9959087 2:-15.259718 3:8.1721163 4:-8.5307007 5:25.944063 6:-30.506779 7:8.5087671 8:2.8324175 9:0.55056477 10:-2.2790043 11:4.5409822 12:-9.8653307 13:9.8673983 14:-7.4327145 15:12.626307 16:-11.930869 17:5.325326 
-1 0:0.47829911 1:0.51651752 2:-0.75840205 3:-0.64172363 4:0.12678131 5:0.59982604 6:0.10688935 7:-0.19857116 8:0.20130311 9:0.32495472 10:-0.59505194 11:-0.22936447 12:0.27837434 13:0.25661424 14:-0.078830764 15:-0.31665438 16:-0.15404895 17:0.49706474 
-0.8450162175430266 0:22.817543 1:-9.5032368 2:-5.5992351 3:17.473139 4:-20.106672 5:8.5656261 6:6.5845065 7:-7.5157118 8:2.0159509 9:-0.616597 10:2.9396298 11:-7.8683314 12:8.4167318 13:-4.1739378 14:1.0744338 15:-6.2891397 16:15.130764 17:-14.193568 
-0.916990144800975 0:-1.4105479 1:-0.8714028 2:0.98390156 3:-0.84018821 4:-0.12911291 5:0.073541738 6:-0.87331557 7:1.1034644 8:0.34948766 9:0.48927191 10:1.0326414 11:-1.1679435 12:-1.1396279 13:0.43647113 14:-0.28874221 15:-0.018172607 16:0.55012399 17:0.16454394 
-0.845167436109633 0:36.598057 1:-21.470978 2:13.637381 3:-16.306007 4:22.776693 5:-20.569227 6:2.8023798 7:4.4412923 8:3.0178747 9:-2.5733352 10:-4.9380603 11:9.0635071 12:-1.1187252 13:-7.3014321 14:2.8934746 15:1.1768358 16:-5.0415554 17:7.6450353 
-0.8450213967256659 0:22.760651 1:-10.587098 2:5.0633688 3:-6.5707965 4:-6.0008979 5:14.063301 6:-10.729099 7:5.8503561 8:-0.27394921 9:-6.3583813 10:8.2211132 11:-0.63750732 12:-11.100894 13:14.278481 14:-14.326296 15:16.895172 16:-3.0973446 17:-11.302185 
-0.8455615159658714 0:33.01799 1:-18.28886 2:9.1982689 3:5.8847342 4:-16.288601 5:3.7234421 6:6.9650455 7:-0.19531104 8:-2.9049942 9:1.2785307 10:-4.0666604 11:8.1298952 12:-7.0953188 13:0.047036257 14:0.088972233 15:12.432591 16:-20.866058 17:15.991396 
-0.8449850638847662 0:-37.906712 1:21.470041 2:-8.599556 3:10.227539 4:-22.407959 5:9.9577856 6:20.903296 7:-33.124245 8:21.096699 9:-6.6701193 10:1.4481231 11:1.232887 12:2.1080875 13:-5.9065795 14:1.3934083 15:4.7568035 16:-8.1234159 17:6.9531827 
-0.8447588681285162 0:-28.08984 1:-4.3995419 2:13.232181 3:3.508816 4:-28.212597 5:36.486855 6:-17.294575 7:-4.8517933 8:9.2370386 9:-2.3466127 10:-4.65482 11:5.0636072 12:-2.5561893 13:5.7541618 14:-11.253295 15:11.512916 16:-6.1654634 17:-1.2845001 
-0.8450213967256659 0:-29.493626 1:10.284742 2:2.3251586 3:-0.46870315 4:-19.019403 5:19.736782 6:3.2943351 7:-13.994868 8:12.114758 9:-9.9894304 10:1.7448088 11:8.2263756 12:-9.0283852 13:1.035555 14:9.4086466 15:-12.247931 16:7.4304647 17:-5.06077 
-0.8501445958577987 0:-1.4023478 1:-0.69732642 2:-0.12344452 3:0.74599326 4:1.7882782 5:1.6134814 6:0.66870356 7:-1.3908588 8:-1.019994 9:0.076404944 10:1.0818602 11:0.51028186 12:-0.69442624 13:-0.8620674 14:-0.28297663 15:-0.18049175 16:-0.06894213 17:0.11094661 
-0.8447395823295308 0:16.41729 1:7.567503 2:-20.119915 3:15.133696 4:-8.6647644 5:2.9379375 6:6.5133715 7:-12.995711 8:10.105847 9:-4.0594072 10:0.0047776178 11:3.1020746 12:-7.5469313 13:9.5986204 14:-4.0563884 15:-11.452486 16:22.228651 17:-16.839024 
-0.845167436109633 0:-5.7987404 1:16.293594 2:-13.583434 3:12.617376 4:-18.159876 5:21.852465 6:-23.602381 7:19.605295 8:-6.0169635 9:-2.4511485 10:6.7566614 11:-14.192494 12:11.18719 13:1.3835609 14:1.1827117 15:-0.79265577 16:-7.8986073 17:-3.2781017 
-0.8448683084697436 0:-12.244896 1:-11.581596 2:18.5354 3:-7.3159442 4:-14.105403 5:15.841855 6:2.3151889 7:-4.778688 8:-1.1355211 9:3.038805 10:1.7403092 11:-3.2820234 12:4.5026379 13:-7.3362832 14:-2.8255703 15:11.360697 16:-3.4446483 17:-6.8352332 
-0.845167436109633 0:-18.909925 1:8.5341291 2:-7.663692 3:2.5941277 4:-7.9814563 5:14.25367 6:-4.1546435 7:-9.5156422 8:10.916752 9:-2.1469755 10:-1.8586818 11:3.4887328 12:-7.0328603 13:10.54671 14:-12.768042 15:13.93856 16:-14.862791 17:10.906814 
-0.845167436109633 0:-18.608976 1:0.036301985 2:13.632503 3:-18.67911 4:12.66178 5:1.4394473 6:-4.4574833 7:-2.2155406 8:6.8541675 9:-1.9578499 10:-4.4958944 11:4.7238536 12:-9.251626 13:7.7414279 14:3.6725285 15:-9.8155117 16:1.4908891 17:14.05182 
-0.8449037924592375 0:-0.63181227 1:5.6106033 2:1.0335802 3:3.4996359 4:-3.6987183 5:-6.5794787 6:0.33893096 7:3.0440917 8:0.71239251 9:0.7857061 10:0.67996722 11:-0.038950056 12:0.72496367 13:-1.2764933 14:-1.1558297 15:-2.0561333 16:3.0736845 17:0.016736537 
-0.8451168478755859 0:-12.580334 1:12.393665 2:-11.849504 3:7.5894303 4:-19.976833 5:16.955978 6:-3.2361202 7:3.9818666 8:4.9750757 9:-13.153619 10:3.1071925 11:9.9505014 12:-7.2937765 13:-3.4972973 14:2.6527407 15:2.6201582 16:0.71389431 17:-8.0731831 
-0.7991587232828351 0:-0.33648467 1:-0.88665885 2:-1.5796459 3:-0.32751107 4:1.699351 5:2.3631766 6:0.18149672 7:-0.87917954 8:-0.88353723 9:-0.30015156 10:-0.41091135 11:0.17760186 12:0.99401283 13:0.55011398 14:-0.59116328 15:-0.51837474 16:0.22634013 17:0.36212617 
-0.8450943807791809 0:-13.329803 1:16.063242 2:-5.4346638 3:-2.1878519 4:24.386929 5:-44.467564 6:41.403652 7:-24.041664 8:9.706872 9:-3.9577858 10:0.27565902 11:0.37340367 12:2.5223393 13:-7.1868491 14:13.763871 15:-22.901752 16:22.228769 17:-2.5525999 
